svm_type c_svc
kernel_type linear
nr_class 2
total_sv 80
rho 1.2419418486572
label 1 0
probA -1.4874218529401675
probB -0.14790439583174878
nr_sv 40 40
SV
1.0 1:0.0 2:0.24363636363636362 3:0.5 4:0.03470264867566217 5:0.0 
1.0 1:0.0 2:0.24333333333333335 3:0.0 4:0.0 5:-1.0 
1.0 1:0.0 2:0.002857142857142857 3:0.5 4:0.008274231678486997 5:-1.0 
1.0 1:0.0 2:0.0 3:1.0 4:0.0 5:0.2588718380485042 
1.0 1:0.0 2:0.33090909090909093 3:0.14285714285714285 4:0.0 5:0.0 
1.0 1:0.0 2:0.0018181818181818182 3:1.0 4:0.0015428547750473657 5:0.0 
1.0 1:0.0 2:0.1709090909090909 3:0.0 4:0.0 5:85.8708159259097 
1.0 1:0.0 2:0.03 3:0.0 4:0.15019762845849802 5:43.22703657628424 
0.2451324646438664 1:0.0 2:0.10571428571428572 3:0.5 4:1.0 5:143.80033869869496 
1.0 1:0.0 2:0.016363636363636365 3:0.0 4:0.0 5:-1.0 
1.0 1:0.0 2:0.01818181818181818 3:0.0 4:0.888921325353963 5:-1.0 
1.0 1:0.0 2:0.13333333333333333 3:1.0 4:0.0 5:123.04927335316589 
1.0 1:0.0 2:0.0575 3:0.6666666666666666 4:0.021457608254812636 5:0.0 
1.0 1:0.0 2:0.0 3:0.6666666666666666 4:0.18970367591897974 5:0.0 
1.0 1:0.0 2:0.008 3:0.0 4:0.001203079884504331 5:0.0 
1.0 1:0.0 2:0.0175 3:0.0 4:0.002323240145589716 5:1.3293546273841785 
1.0 1:0.0 2:0.0 3:0.08333333333333333 4:0.0 5:0.0 
1.0 1:0.0 2:0.11 3:1.0 4:0.09659785932721712 5:123.08356601639616 
1.0 1:0.0 2:0.0 3:0.4 4:0.556910287395652 5:0.0 
1.0 1:0.0 2:0.01 3:0.32142857142857145 4:1.2666565334143993E-4 5:1.6458235077207846 
1.0 1:0.0 2:0.007272727272727273 3:0.0 4:1.0 5:142.1561554859141 
1.0 1:0.0 2:0.0 3:1.0 4:0.002126044039483675 5:0.0 
1.0 1:0.0 2:0.03 3:0.0 4:0.0022124029769111167 5:8.836976251248917 
1.0 1:0.0 2:0.0 3:1.0 4:3.429086491358702E-4 5:0.0 
1.0 1:0.0 2:0.09272727272727273 3:0.9166666666666667 4:0.010298773410637707 5:0.0 
0.519721937347905 1:0.0 2:0.00909090909090909 3:1.0 4:0.0 5:0.2727918533277147 
1.0 1:0.0 2:0.0033333333333333335 3:0.5 4:0.0014821536600120992 5:1.128506401160458 
1.0 1:0.0 2:0.006666666666666667 3:1.0 4:0.0 5:50.210520596927694 
1.0 1:0.0 2:0.0 3:0.8 4:0.0 5:0.0 
1.0 1:0.0 2:0.006666666666666667 3:1.0 4:0.0 5:86.27689261250087 
1.0 1:0.0 2:0.0 3:1.0 4:0.002469438182654767 5:0.0 
1.0 1:0.0 2:0.16 3:0.25 4:0.0 5:0.0 
1.0 1:0.0 2:0.002857142857142857 3:0.0 4:4.970461258804817E-4 5:0.3935643822470367 
1.0 1:0.0 2:0.07090909090909091 3:0.6666666666666666 4:0.0 5:0.0 
1.0 1:0.0 2:0.0 3:0.3 4:0.0 5:0.0 
1.0 1:0.0 2:0.07272727272727272 3:0.5 4:0.16231884057971013 5:99.22284070588874 
1.0 1:0.0 2:0.0175 3:0.0 4:5.289805788558906E-5 5:0.0 
1.0 1:0.0 2:0.025 3:0.6666666666666666 4:0.25428577007185255 5:-1.0 
1.0 1:0.0 2:0.01 3:1.0 4:0.21445895919322583 5:124.55318660291057 
1.0 1:0.0 2:0.006666666666666667 3:1.0 4:2.815706008113256E-5 5:0.047044679587807156 
-1.0 1:0.0 2:0.0225 3:0.1 4:0.05042719034103189 5:6.637555430470683 
-0.03746387277089632 1:0.0 2:0.09 3:0.06666666666666667 4:1.353428524472888E-4 5:5.690504710079821 
-1.0 1:0.0 2:0.4127272727272727 3:0.07142857142857142 4:0.0 5:0.7865131490353157 
-1.0 1:0.0 2:0.4 3:0.1 4:0.0 5:9.258659325736026 
-1.0 1:0.0 2:0.0 3:1.0 4:0.0 5:0.6934590373760987 
-1.0 1:0.0 2:0.012727272727272728 3:0.5 4:0.0 5:48.65186316288312 
-1.0 1:0.0 2:0.09090909090909091 3:0.5625 4:0.0 5:104.85963011850298 
-1.0 1:0.0 2:0.38545454545454544 3:0.5 4:0.0 5:143.265219604313 
-1.0 1:0.0 2:0.0 3:1.0 4:0.0 5:50.210520596927694 
-1.0 1:0.0 2:0.004 3:0.3 4:0.06541342844238167 5:-1.0 
-1.0 1:0.0 2:0.26181818181818184 3:0.0 4:0.0 5:5.5135297553186815 
-1.0 1:0.0 2:0.5563636363636364 3:0.25 4:0.0 5:44.36782566032776 
-1.0 1:0.0 2:0.0 3:0.5 4:0.0 5:18.519322936227535 
-1.0 1:0.0 2:0.022 3:0.25 4:0.0 5:10.995817464402764 
-1.0 1:0.0 2:-1.0 3:1.0 4:0.0 5:22.18251461927995 
-1.0 1:0.0 2:0.002857142857142857 3:0.42857142857142855 4:0.0 5:9.997147866702326 
-1.0 1:0.0 2:0.3342857142857143 3:0.4166666666666667 4:0.0 5:12.32291556578194 
-1.0 1:0.0 2:0.11142857142857143 3:0.3333333333333333 4:1.4642138296042074E-4 5:6.521548442319696 
-1.0 1:0.0 2:0.0 3:0.25 4:0.0 5:0.0 
-1.0 1:0.0 2:0.002857142857142857 3:0.25 4:0.0 5:10.33004181173896 
-1.0 1:0.0 2:0.0 3:0.4166666666666667 4:0.0 5:9.110879022150092 
-1.0 1:0.0 2:0.2885714285714286 3:0.25 4:0.0 5:10.126173759486388 
-1.0 1:0.0 2:0.0022222222222222222 3:0.0 4:0.18127534805080847 5:0.0 
-1.0 1:0.0 2:0.3622222222222222 3:0.0 4:0.5768684285308326 5:-1.0 
-1.0 1:0.0 2:0.44222222222222224 3:0.0 4:0.05580097651708905 5:0.0 
-1.0 1:0.0 2:0.0 3:1.0 4:0.0 5:0.0 
-1.0 1:0.0 2:0.005 3:0.75 4:0.0 5:67.25900231368495 
-0.7273905292208745 1:0.0 2:-1.0 3:1.0 4:1.1561170981460836E-4 5:46.31594975282297 
-1.0 1:0.0 2:0.25636363636363635 3:0.3888888888888889 4:0.0 5:39.78618233026896 
-1.0 1:0.0 2:0.0 3:0.5625 4:0.0 5:19.616310755469122 
-1.0 1:0.0 2:0.0 3:0.5 4:0.0 5:4.109562868195934 
-1.0 1:0.0 2:0.0 3:0.5 4:0.06306811356264766 5:2.1679614796598674 
-1.0 1:0.0 2:0.028 3:0.4583333333333333 4:6.349206349206349E-4 5:58.268527913855664 
-1.0 1:0.0 2:0.0036363636363636364 3:0.5 4:0.0037457191780821916 5:5.644228975833208 
-1.0 1:0.0 2:-1.0 3:0.5909090909090909 4:0.6349034957484141 5:34.76284975844141 
-1.0 1:0.0 2:0.017142857142857144 3:0.5 4:0.0 5:11.571271392541542 
-1.0 1:0.0 2:0.0 3:0.5 4:0.0 5:28.064505689073435 
-1.0 1:0.0 2:-1.0 3:1.0 4:8.337800011911143E-5 5:0.13697457600919927 
-1.0 1:0.0 2:0.023636363636363636 3:0.5 4:9.97765006385696E-4 5:71.7208748528883 
-1.0 1:0.0 2:0.02727272727272727 3:0.3333333333333333 4:0.0 5:22.328698824897295 
